digraph Tree {
node [shape=box] ;
0 [label="X[0] <= 0.5\nentropy = 0.888\nsamples = 700\nvalue = [214, 486]"] ;
1 [label="X[13] <= 0.5\nentropy = 0.544\nsamples = 272\nvalue = [34, 238]"] ;
0 -> 1 [labeldistance=2.5, labelangle=45, headlabel="True"] ;
2 [label="X[12] <= 44.5\nentropy = 0.951\nsamples = 27\nvalue = [10, 17]"] ;
1 -> 2 ;
3 [label="X[3] <= 3.5\nentropy = 1.0\nsamples = 20\nvalue = [10, 10]"] ;
2 -> 3 ;
4 [label="X[9] <= 1.5\nentropy = 0.722\nsamples = 10\nvalue = [8, 2]"] ;
3 -> 4 ;
5 [label="entropy = 0.0\nsamples = 1\nvalue = [0, 1]"] ;
4 -> 5 ;
6 [label="X[7] <= 1.5\nentropy = 0.503\nsamples = 9\nvalue = [8, 1]"] ;
4 -> 6 ;
7 [label="entropy = 0.0\nsamples = 1\nvalue = [0, 1]"] ;
6 -> 7 ;
8 [label="entropy = 0.0\nsamples = 8\nvalue = [8, 0]"] ;
6 -> 8 ;
9 [label="X[5] <= 2.5\nentropy = 0.722\nsamples = 10\nvalue = [2, 8]"] ;
3 -> 9 ;
10 [label="X[3] <= 6.0\nentropy = 0.918\nsamples = 3\nvalue = [2, 1]"] ;
9 -> 10 ;
11 [label="entropy = 0.0\nsamples = 1\nvalue = [0, 1]"] ;
10 -> 11 ;
12 [label="entropy = 0.0\nsamples = 2\nvalue = [2, 0]"] ;
10 -> 12 ;
13 [label="entropy = 0.0\nsamples = 7\nvalue = [0, 7]"] ;
9 -> 13 ;
14 [label="entropy = 0.0\nsamples = 7\nvalue = [0, 7]"] ;
2 -> 14 ;
15 [label="X[2] <= 1.5\nentropy = 0.462\nsamples = 245\nvalue = [24, 221]"] ;
1 -> 15 ;
16 [label="X[4] <= 6934.5\nentropy = 0.15\nsamples = 93\nvalue = [2, 91]"] ;
15 -> 16 ;
17 [label="entropy = 0.0\nsamples = 85\nvalue = [0, 85]"] ;
16 -> 17 ;
18 [label="X[6] <= 1.5\nentropy = 0.811\nsamples = 8\nvalue = [2, 6]"] ;
16 -> 18 ;
19 [label="entropy = 0.0\nsamples = 5\nvalue = [0, 5]"] ;
18 -> 19 ;
20 [label="X[7] <= 1.5\nentropy = 0.918\nsamples = 3\nvalue = [2, 1]"] ;
18 -> 20 ;
21 [label="entropy = 0.0\nsamples = 1\nvalue = [0, 1]"] ;
20 -> 21 ;
22 [label="entropy = 0.0\nsamples = 2\nvalue = [2, 0]"] ;
20 -> 22 ;
23 [label="X[15] <= 1.5\nentropy = 0.597\nsamples = 152\nvalue = [22, 130]"] ;
15 -> 23 ;
24 [label="X[6] <= 2.5\nentropy = 0.429\nsamples = 114\nvalue = [10, 104]"] ;
23 -> 24 ;
25 [label="X[7] <= 2.5\nentropy = 0.535\nsamples = 82\nvalue = [10, 72]"] ;
24 -> 25 ;
26 [label="X[4] <= 1389.5\nentropy = 0.201\nsamples = 32\nvalue = [1, 31]"] ;
25 -> 26 ;
27 [label="X[4] <= 1375.0\nentropy = 0.65\nsamples = 6\nvalue = [1, 5]"] ;
26 -> 27 ;
28 [label="entropy = 0.0\nsamples = 5\nvalue = [0, 5]"] ;
27 -> 28 ;
29 [label="entropy = 0.0\nsamples = 1\nvalue = [1, 0]"] ;
27 -> 29 ;
30 [label="entropy = 0.0\nsamples = 26\nvalue = [0, 26]"] ;
26 -> 30 ;
31 [label="X[12] <= 23.5\nentropy = 0.68\nsamples = 50\nvalue = [9, 41]"] ;
25 -> 31 ;
32 [label="X[5] <= 1.5\nentropy = 0.811\nsamples = 4\nvalue = [3, 1]"] ;
31 -> 32 ;
33 [label="entropy = 0.0\nsamples = 1\nvalue = [0, 1]"] ;
32 -> 33 ;
34 [label="entropy = 0.0\nsamples = 3\nvalue = [3, 0]"] ;
32 -> 34 ;
35 [label="X[3] <= 6.0\nentropy = 0.559\nsamples = 46\nvalue = [6, 40]"] ;
31 -> 35 ;
36 [label="X[9] <= 1.5\nentropy = 0.75\nsamples = 28\nvalue = [6, 22]"] ;
35 -> 36 ;
37 [label="entropy = 0.0\nsamples = 2\nvalue = [2, 0]"] ;
36 -> 37 ;
38 [label="X[3] <= 2.5\nentropy = 0.619\nsamples = 26\nvalue = [4, 22]"] ;
36 -> 38 ;
39 [label="entropy = 0.0\nsamples = 16\nvalue = [0, 16]"] ;
38 -> 39 ;
40 [label="X[4] <= 1777.5\nentropy = 0.971\nsamples = 10\nvalue = [4, 6]"] ;
38 -> 40 ;
41 [label="entropy = 0.0\nsamples = 6\nvalue = [0, 6]"] ;
40 -> 41 ;
42 [label="entropy = 0.0\nsamples = 4\nvalue = [4, 0]"] ;
40 -> 42 ;
43 [label="entropy = 0.0\nsamples = 18\nvalue = [0, 18]"] ;
35 -> 43 ;
44 [label="entropy = 0.0\nsamples = 32\nvalue = [0, 32]"] ;
24 -> 44 ;
45 [label="X[4] <= 3607.5\nentropy = 0.9\nsamples = 38\nvalue = [12, 26]"] ;
23 -> 45 ;
46 [label="X[6] <= 1.5\nentropy = 0.592\nsamples = 21\nvalue = [3, 18]"] ;
45 -> 46 ;
47 [label="entropy = 0.0\nsamples = 10\nvalue = [0, 10]"] ;
46 -> 47 ;
48 [label="X[1] <= 13.5\nentropy = 0.845\nsamples = 11\nvalue = [3, 8]"] ;
46 -> 48 ;
49 [label="entropy = 0.0\nsamples = 2\nvalue = [2, 0]"] ;
48 -> 49 ;
50 [label="X[17] <= 1.5\nentropy = 0.503\nsamples = 9\nvalue = [1, 8]"] ;
48 -> 50 ;
51 [label="entropy = 0.0\nsamples = 8\nvalue = [0, 8]"] ;
50 -> 51 ;
52 [label="entropy = 0.0\nsamples = 1\nvalue = [1, 0]"] ;
50 -> 52 ;
53 [label="X[16] <= 1.0\nentropy = 0.998\nsamples = 17\nvalue = [9, 8]"] ;
45 -> 53 ;
54 [label="entropy = 0.0\nsamples = 3\nvalue = [3, 0]"] ;
53 -> 54 ;
55 [label="X[1] <= 25.5\nentropy = 0.985\nsamples = 14\nvalue = [6, 8]"] ;
53 -> 55 ;
56 [label="X[7] <= 2.5\nentropy = 0.722\nsamples = 5\nvalue = [4, 1]"] ;
55 -> 56 ;
57 [label="entropy = 0.0\nsamples = 4\nvalue = [4, 0]"] ;
56 -> 57 ;
58 [label="entropy = 0.0\nsamples = 1\nvalue = [0, 1]"] ;
56 -> 58 ;
59 [label="X[12] <= 29.5\nentropy = 0.764\nsamples = 9\nvalue = [2, 7]"] ;
55 -> 59 ;
60 [label="X[6] <= 1.5\nentropy = 1.0\nsamples = 4\nvalue = [2, 2]"] ;
59 -> 60 ;
61 [label="entropy = 0.0\nsamples = 2\nvalue = [0, 2]"] ;
60 -> 61 ;
62 [label="entropy = 0.0\nsamples = 2\nvalue = [2, 0]"] ;
60 -> 62 ;
63 [label="entropy = 0.0\nsamples = 5\nvalue = [0, 5]"] ;
59 -> 63 ;
64 [label="X[1] <= 8.5\nentropy = 0.982\nsamples = 428\nvalue = [180, 248]"] ;
0 -> 64 [labeldistance=2.5, labelangle=-45, headlabel="False"] ;
65 [label="X[2] <= 0.5\nentropy = 0.485\nsamples = 38\nvalue = [4, 34]"] ;
64 -> 65 ;
66 [label="entropy = 0.0\nsamples = 2\nvalue = [2, 0]"] ;
65 -> 66 ;
67 [label="X[4] <= 3015.5\nentropy = 0.31\nsamples = 36\nvalue = [2, 34]"] ;
65 -> 67 ;
68 [label="entropy = 0.0\nsamples = 32\nvalue = [0, 32]"] ;
67 -> 68 ;
69 [label="X[18] <= 0.5\nentropy = 1.0\nsamples = 4\nvalue = [2, 2]"] ;
67 -> 69 ;
70 [label="entropy = 0.0\nsamples = 2\nvalue = [0, 2]"] ;
69 -> 70 ;
71 [label="entropy = 0.0\nsamples = 2\nvalue = [2, 0]"] ;
69 -> 71 ;
72 [label="X[1] <= 43.5\nentropy = 0.993\nsamples = 390\nvalue = [176, 214]"] ;
64 -> 72 ;
73 [label="X[4] <= 1381.5\nentropy = 0.982\nsamples = 358\nvalue = [151, 207]"] ;
72 -> 73 ;
74 [label="X[11] <= 2.5\nentropy = 0.994\nsamples = 101\nvalue = [55, 46]"] ;
73 -> 74 ;
75 [label="X[6] <= 3.5\nentropy = 0.984\nsamples = 73\nvalue = [31, 42]"] ;
74 -> 75 ;
76 [label="X[9] <= 1.5\nentropy = 0.966\nsamples = 69\nvalue = [27, 42]"] ;
75 -> 76 ;
77 [label="entropy = 0.0\nsamples = 7\nvalue = [0, 7]"] ;
76 -> 77 ;
78 [label="X[4] <= 590.0\nentropy = 0.988\nsamples = 62\nvalue = [27, 35]"] ;
76 -> 78 ;
79 [label="entropy = 0.0\nsamples = 4\nvalue = [0, 4]"] ;
78 -> 79 ;
80 [label="X[3] <= 2.0\nentropy = 0.997\nsamples = 58\nvalue = [27, 31]"] ;
78 -> 80 ;
81 [label="X[1] <= 15.0\nentropy = 0.918\nsamples = 21\nvalue = [14, 7]"] ;
80 -> 81 ;
82 [label="X[8] <= 1.5\nentropy = 0.996\nsamples = 13\nvalue = [6, 7]"] ;
81 -> 82 ;
83 [label="entropy = 0.0\nsamples = 3\nvalue = [3, 0]"] ;
82 -> 83 ;
84 [label="X[4] <= 948.5\nentropy = 0.881\nsamples = 10\nvalue = [3, 7]"] ;
82 -> 84 ;
85 [label="X[10] <= 3.5\nentropy = 0.811\nsamples = 4\nvalue = [3, 1]"] ;
84 -> 85 ;
86 [label="entropy = 0.0\nsamples = 3\nvalue = [3, 0]"] ;
85 -> 86 ;
87 [label="entropy = 0.0\nsamples = 1\nvalue = [0, 1]"] ;
85 -> 87 ;
88 [label="entropy = 0.0\nsamples = 6\nvalue = [0, 6]"] ;
84 -> 88 ;
89 [label="entropy = 0.0\nsamples = 8\nvalue = [8, 0]"] ;
81 -> 89 ;
90 [label="X[4] <= 1223.5\nentropy = 0.935\nsamples = 37\nvalue = [13, 24]"] ;
80 -> 90 ;
91 [label="X[7] <= 2.5\nentropy = 0.996\nsamples = 28\nvalue = [13, 15]"] ;
90 -> 91 ;
92 [label="entropy = 0.0\nsamples = 5\nvalue = [0, 5]"] ;
91 -> 92 ;
93 [label="X[5] <= 0.5\nentropy = 0.988\nsamples = 23\nvalue = [13, 10]"] ;
91 -> 93 ;
94 [label="entropy = 0.0\nsamples = 2\nvalue = [0, 2]"] ;
93 -> 94 ;
95 [label="X[5] <= 1.5\nentropy = 0.959\nsamples = 21\nvalue = [13, 8]"] ;
93 -> 95 ;
96 [label="entropy = 0.0\nsamples = 3\nvalue = [3, 0]"] ;
95 -> 96 ;
97 [label="X[4] <= 1167.5\nentropy = 0.991\nsamples = 18\nvalue = [10, 8]"] ;
95 -> 97 ;
98 [label="X[12] <= 27.5\nentropy = 0.954\nsamples = 16\nvalue = [10, 6]"] ;
97 -> 98 ;
99 [label="X[4] <= 639.0\nentropy = 0.985\nsamples = 7\nvalue = [3, 4]"] ;
98 -> 99 ;
100 [label="entropy = 0.0\nsamples = 2\nvalue = [2, 0]"] ;
99 -> 100 ;
101 [label="X[3] <= 8.0\nentropy = 0.722\nsamples = 5\nvalue = [1, 4]"] ;
99 -> 101 ;
102 [label="entropy = 0.0\nsamples = 4\nvalue = [0, 4]"] ;
101 -> 102 ;
103 [label="entropy = 0.0\nsamples = 1\nvalue = [1, 0]"] ;
101 -> 103 ;
104 [label="X[6] <= 0.5\nentropy = 0.764\nsamples = 9\nvalue = [7, 2]"] ;
98 -> 104 ;
105 [label="X[4] <= 723.0\nentropy = 1.0\nsamples = 4\nvalue = [2, 2]"] ;
104 -> 105 ;
106 [label="entropy = 0.0\nsamples = 1\nvalue = [0, 1]"] ;
105 -> 106 ;
107 [label="X[4] <= 778.0\nentropy = 0.918\nsamples = 3\nvalue = [2, 1]"] ;
105 -> 107 ;
108 [label="entropy = 0.0\nsamples = 2\nvalue = [2, 0]"] ;
107 -> 108 ;
109 [label="entropy = 0.0\nsamples = 1\nvalue = [0, 1]"] ;
107 -> 109 ;
110 [label="entropy = 0.0\nsamples = 5\nvalue = [5, 0]"] ;
104 -> 110 ;
111 [label="entropy = 0.0\nsamples = 2\nvalue = [0, 2]"] ;
97 -> 111 ;
112 [label="entropy = 0.0\nsamples = 9\nvalue = [0, 9]"] ;
90 -> 112 ;
113 [label="entropy = 0.0\nsamples = 4\nvalue = [4, 0]"] ;
75 -> 113 ;
114 [label="X[10] <= 1.5\nentropy = 0.592\nsamples = 28\nvalue = [24, 4]"] ;
74 -> 114 ;
115 [label="X[12] <= 24.0\nentropy = 0.918\nsamples = 3\nvalue = [1, 2]"] ;
114 -> 115 ;
116 [label="entropy = 0.0\nsamples = 1\nvalue = [1, 0]"] ;
115 -> 116 ;
117 [label="entropy = 0.0\nsamples = 2\nvalue = [0, 2]"] ;
115 -> 117 ;
118 [label="X[14] <= 0.5\nentropy = 0.402\nsamples = 25\nvalue = [23, 2]"] ;
114 -> 118 ;
119 [label="entropy = 0.0\nsamples = 1\nvalue = [0, 1]"] ;
118 -> 119 ;
120 [label="X[1] <= 10.5\nentropy = 0.25\nsamples = 24\nvalue = [23, 1]"] ;
118 -> 120 ;
121 [label="X[10] <= 3.5\nentropy = 0.918\nsamples = 3\nvalue = [2, 1]"] ;
120 -> 121 ;
122 [label="entropy = 0.0\nsamples = 2\nvalue = [2, 0]"] ;
121 -> 122 ;
123 [label="entropy = 0.0\nsamples = 1\nvalue = [0, 1]"] ;
121 -> 123 ;
124 [label="entropy = 0.0\nsamples = 21\nvalue = [21, 0]"] ;
120 -> 124 ;
125 [label="X[0] <= 2.5\nentropy = 0.953\nsamples = 257\nvalue = [96, 161]"] ;
73 -> 125 ;
126 [label="X[4] <= 8150.5\nentropy = 0.973\nsamples = 233\nvalue = [94, 139]"] ;
125 -> 126 ;
127 [label="X[2] <= 0.5\nentropy = 0.958\nsamples = 216\nvalue = [82, 134]"] ;
126 -> 127 ;
128 [label="X[12] <= 23.0\nentropy = 0.863\nsamples = 14\nvalue = [10, 4]"] ;
127 -> 128 ;
129 [label="entropy = 0.0\nsamples = 3\nvalue = [0, 3]"] ;
128 -> 129 ;
130 [label="X[3] <= 0.5\nentropy = 0.439\nsamples = 11\nvalue = [10, 1]"] ;
128 -> 130 ;
131 [label="entropy = 0.0\nsamples = 1\nvalue = [0, 1]"] ;
130 -> 131 ;
132 [label="entropy = 0.0\nsamples = 10\nvalue = [10, 0]"] ;
130 -> 132 ;
133 [label="X[1] <= 20.5\nentropy = 0.94\nsamples = 202\nvalue = [72, 130]"] ;
127 -> 133 ;
134 [label="X[17] <= 1.5\nentropy = 0.841\nsamples = 100\nvalue = [27, 73]"] ;
133 -> 134 ;
135 [label="X[14] <= 1.5\nentropy = 0.889\nsamples = 88\nvalue = [27, 61]"] ;
134 -> 135 ;
136 [label="X[13] <= 0.5\nentropy = 0.781\nsamples = 69\nvalue = [16, 53]"] ;
135 -> 136 ;
137 [label="entropy = 0.0\nsamples = 11\nvalue = [0, 11]"] ;
136 -> 137 ;
138 [label="X[10] <= 3.5\nentropy = 0.85\nsamples = 58\nvalue = [16, 42]"] ;
136 -> 138 ;
139 [label="X[12] <= 57.0\nentropy = 0.918\nsamples = 45\nvalue = [15, 30]"] ;
138 -> 139 ;
140 [label="X[16] <= 0.5\nentropy = 0.884\nsamples = 43\nvalue = [13, 30]"] ;
139 -> 140 ;
141 [label="X[3] <= 3.0\nentropy = 0.918\nsamples = 6\nvalue = [4, 2]"] ;
140 -> 141 ;
142 [label="X[14] <= 0.5\nentropy = 0.918\nsamples = 3\nvalue = [1, 2]"] ;
141 -> 142 ;
143 [label="entropy = 0.0\nsamples = 1\nvalue = [1, 0]"] ;
142 -> 143 ;
144 [label="entropy = 0.0\nsamples = 2\nvalue = [0, 2]"] ;
142 -> 144 ;
145 [label="entropy = 0.0\nsamples = 3\nvalue = [3, 0]"] ;
141 -> 145 ;
146 [label="X[4] <= 1663.5\nentropy = 0.8\nsamples = 37\nvalue = [9, 28]"] ;
140 -> 146 ;
147 [label="entropy = 0.0\nsamples = 11\nvalue = [0, 11]"] ;
146 -> 147 ;
148 [label="X[10] <= 1.5\nentropy = 0.931\nsamples = 26\nvalue = [9, 17]"] ;
146 -> 148 ;
149 [label="entropy = 0.0\nsamples = 7\nvalue = [0, 7]"] ;
148 -> 149 ;
150 [label="X[8] <= 1.5\nentropy = 0.998\nsamples = 19\nvalue = [9, 10]"] ;
148 -> 150 ;
151 [label="X[16] <= 2.5\nentropy = 0.65\nsamples = 6\nvalue = [5, 1]"] ;
150 -> 151 ;
152 [label="entropy = 0.0\nsamples = 1\nvalue = [0, 1]"] ;
151 -> 152 ;
153 [label="entropy = 0.0\nsamples = 5\nvalue = [5, 0]"] ;
151 -> 153 ;
154 [label="X[3] <= 4.0\nentropy = 0.89\nsamples = 13\nvalue = [4, 9]"] ;
150 -> 154 ;
155 [label="entropy = 0.0\nsamples = 6\nvalue = [0, 6]"] ;
154 -> 155 ;
156 [label="X[7] <= 2.5\nentropy = 0.985\nsamples = 7\nvalue = [4, 3]"] ;
154 -> 156 ;
157 [label="entropy = 0.0\nsamples = 3\nvalue = [3, 0]"] ;
156 -> 157 ;
158 [label="X[4] <= 2029.0\nentropy = 0.811\nsamples = 4\nvalue = [1, 3]"] ;
156 -> 158 ;
159 [label="entropy = 0.0\nsamples = 1\nvalue = [1, 0]"] ;
158 -> 159 ;
160 [label="entropy = 0.0\nsamples = 3\nvalue = [0, 3]"] ;
158 -> 160 ;
161 [label="entropy = 0.0\nsamples = 2\nvalue = [2, 0]"] ;
139 -> 161 ;
162 [label="X[4] <= 7619.5\nentropy = 0.391\nsamples = 13\nvalue = [1, 12]"] ;
138 -> 162 ;
163 [label="entropy = 0.0\nsamples = 12\nvalue = [0, 12]"] ;
162 -> 163 ;
164 [label="entropy = 0.0\nsamples = 1\nvalue = [1, 0]"] ;
162 -> 164 ;
165 [label="X[2] <= 3.5\nentropy = 0.982\nsamples = 19\nvalue = [11, 8]"] ;
135 -> 165 ;
166 [label="X[16] <= 2.5\nentropy = 0.997\nsamples = 15\nvalue = [7, 8]"] ;
165 -> 166 ;
167 [label="entropy = 0.0\nsamples = 3\nvalue = [0, 3]"] ;
166 -> 167 ;
168 [label="X[13] <= 0.5\nentropy = 0.98\nsamples = 12\nvalue = [7, 5]"] ;
166 -> 168 ;
169 [label="entropy = 0.0\nsamples = 3\nvalue = [3, 0]"] ;
168 -> 169 ;
170 [label="X[11] <= 2.5\nentropy = 0.991\nsamples = 9\nvalue = [4, 5]"] ;
168 -> 170 ;
171 [label="X[12] <= 24.5\nentropy = 0.985\nsamples = 7\nvalue = [4, 3]"] ;
170 -> 171 ;
172 [label="entropy = 0.0\nsamples = 2\nvalue = [2, 0]"] ;
171 -> 172 ;
173 [label="X[6] <= 1.5\nentropy = 0.971\nsamples = 5\nvalue = [2, 3]"] ;
171 -> 173 ;
174 [label="entropy = 0.0\nsamples = 2\nvalue = [0, 2]"] ;
173 -> 174 ;
175 [label="X[7] <= 2.5\nentropy = 0.918\nsamples = 3\nvalue = [2, 1]"] ;
173 -> 175 ;
176 [label="entropy = 0.0\nsamples = 1\nvalue = [0, 1]"] ;
175 -> 176 ;
177 [label="entropy = 0.0\nsamples = 2\nvalue = [2, 0]"] ;
175 -> 177 ;
178 [label="entropy = 0.0\nsamples = 2\nvalue = [0, 2]"] ;
170 -> 178 ;
179 [label="entropy = 0.0\nsamples = 4\nvalue = [4, 0]"] ;
165 -> 179 ;
180 [label="entropy = 0.0\nsamples = 12\nvalue = [0, 12]"] ;
134 -> 180 ;
181 [label="X[4] <= 1789.0\nentropy = 0.99\nsamples = 102\nvalue = [45, 57]"] ;
133 -> 181 ;
182 [label="entropy = 0.0\nsamples = 6\nvalue = [0, 6]"] ;
181 -> 182 ;
183 [label="X[4] <= 1951.5\nentropy = 0.997\nsamples = 96\nvalue = [45, 51]"] ;
181 -> 183 ;
184 [label="entropy = 0.0\nsamples = 6\nvalue = [6, 0]"] ;
183 -> 184 ;
185 [label="X[12] <= 23.5\nentropy = 0.987\nsamples = 90\nvalue = [39, 51]"] ;
183 -> 185 ;
186 [label="X[1] <= 25.5\nentropy = 0.837\nsamples = 15\nvalue = [11, 4]"] ;
185 -> 186 ;
187 [label="X[14] <= 1.5\nentropy = 0.971\nsamples = 10\nvalue = [6, 4]"] ;
186 -> 187 ;
188 [label="X[11] <= 0.5\nentropy = 0.811\nsamples = 4\nvalue = [1, 3]"] ;
187 -> 188 ;
189 [label="entropy = 0.0\nsamples = 1\nvalue = [1, 0]"] ;
188 -> 189 ;
190 [label="entropy = 0.0\nsamples = 3\nvalue = [0, 3]"] ;
188 -> 190 ;
191 [label="X[16] <= 1.5\nentropy = 0.65\nsamples = 6\nvalue = [5, 1]"] ;
187 -> 191 ;
192 [label="entropy = 0.0\nsamples = 1\nvalue = [0, 1]"] ;
191 -> 192 ;
193 [label="entropy = 0.0\nsamples = 5\nvalue = [5, 0]"] ;
191 -> 193 ;
194 [label="entropy = 0.0\nsamples = 5\nvalue = [5, 0]"] ;
186 -> 194 ;
195 [label="X[7] <= 2.5\nentropy = 0.953\nsamples = 75\nvalue = [28, 47]"] ;
185 -> 195 ;
196 [label="X[4] <= 5518.0\nentropy = 0.758\nsamples = 32\nvalue = [7, 25]"] ;
195 -> 196 ;
197 [label="X[5] <= 2.0\nentropy = 0.934\nsamples = 20\nvalue = [7, 13]"] ;
196 -> 197 ;
198 [label="entropy = 0.0\nsamples = 6\nvalue = [0, 6]"] ;
197 -> 198 ;
199 [label="X[6] <= 1.5\nentropy = 1.0\nsamples = 14\nvalue = [7, 7]"] ;
197 -> 199 ;
200 [label="X[18] <= 0.5\nentropy = 0.881\nsamples = 10\nvalue = [3, 7]"] ;
199 -> 200 ;
201 [label="entropy = 0.0\nsamples = 5\nvalue = [0, 5]"] ;
200 -> 201 ;
202 [label="X[16] <= 1.0\nentropy = 0.971\nsamples = 5\nvalue = [3, 2]"] ;
200 -> 202 ;
203 [label="entropy = 0.0\nsamples = 2\nvalue = [0, 2]"] ;
202 -> 203 ;
204 [label="entropy = 0.0\nsamples = 3\nvalue = [3, 0]"] ;
202 -> 204 ;
205 [label="entropy = 0.0\nsamples = 4\nvalue = [4, 0]"] ;
199 -> 205 ;
206 [label="entropy = 0.0\nsamples = 12\nvalue = [0, 12]"] ;
196 -> 206 ;
207 [label="X[4] <= 3207.0\nentropy = 1.0\nsamples = 43\nvalue = [21, 22]"] ;
195 -> 207 ;
208 [label="X[9] <= 1.0\nentropy = 0.831\nsamples = 19\nvalue = [5, 14]"] ;
207 -> 208 ;
209 [label="entropy = 0.0\nsamples = 2\nvalue = [2, 0]"] ;
208 -> 209 ;
210 [label="X[2] <= 2.5\nentropy = 0.672\nsamples = 17\nvalue = [3, 14]"] ;
208 -> 210 ;
211 [label="entropy = 0.0\nsamples = 7\nvalue = [0, 7]"] ;
210 -> 211 ;
212 [label="X[6] <= 0.5\nentropy = 0.881\nsamples = 10\nvalue = [3, 7]"] ;
210 -> 212 ;
213 [label="entropy = 0.0\nsamples = 1\nvalue = [1, 0]"] ;
212 -> 213 ;
214 [label="X[12] <= 38.0\nentropy = 0.764\nsamples = 9\nvalue = [2, 7]"] ;
212 -> 214 ;
215 [label="entropy = 0.0\nsamples = 5\nvalue = [0, 5]"] ;
214 -> 215 ;
216 [label="X[14] <= 0.5\nentropy = 1.0\nsamples = 4\nvalue = [2, 2]"] ;
214 -> 216 ;
217 [label="entropy = 0.0\nsamples = 1\nvalue = [0, 1]"] ;
216 -> 217 ;
218 [label="X[12] <= 62.5\nentropy = 0.918\nsamples = 3\nvalue = [2, 1]"] ;
216 -> 218 ;
219 [label="entropy = 0.0\nsamples = 2\nvalue = [2, 0]"] ;
218 -> 219 ;
220 [label="entropy = 0.0\nsamples = 1\nvalue = [0, 1]"] ;
218 -> 220 ;
221 [label="X[9] <= 1.5\nentropy = 0.918\nsamples = 24\nvalue = [16, 8]"] ;
207 -> 221 ;
222 [label="entropy = 0.0\nsamples = 2\nvalue = [0, 2]"] ;
221 -> 222 ;
223 [label="X[1] <= 25.5\nentropy = 0.845\nsamples = 22\nvalue = [16, 6]"] ;
221 -> 223 ;
224 [label="X[7] <= 3.5\nentropy = 1.0\nsamples = 8\nvalue = [4, 4]"] ;
223 -> 224 ;
225 [label="entropy = 0.0\nsamples = 3\nvalue = [3, 0]"] ;
224 -> 225 ;
226 [label="X[12] <= 38.0\nentropy = 0.722\nsamples = 5\nvalue = [1, 4]"] ;
224 -> 226 ;
227 [label="entropy = 0.0\nsamples = 4\nvalue = [0, 4]"] ;
226 -> 227 ;
228 [label="entropy = 0.0\nsamples = 1\nvalue = [1, 0]"] ;
226 -> 228 ;
229 [label="X[10] <= 3.5\nentropy = 0.592\nsamples = 14\nvalue = [12, 2]"] ;
223 -> 229 ;
230 [label="entropy = 0.0\nsamples = 10\nvalue = [10, 0]"] ;
229 -> 230 ;
231 [label="X[18] <= 0.5\nentropy = 1.0\nsamples = 4\nvalue = [2, 2]"] ;
229 -> 231 ;
232 [label="entropy = 0.0\nsamples = 2\nvalue = [2, 0]"] ;
231 -> 232 ;
233 [label="entropy = 0.0\nsamples = 2\nvalue = [0, 2]"] ;
231 -> 233 ;
234 [label="X[2] <= 2.5\nentropy = 0.874\nsamples = 17\nvalue = [12, 5]"] ;
126 -> 234 ;
235 [label="X[5] <= 2.0\nentropy = 0.954\nsamples = 8\nvalue = [3, 5]"] ;
234 -> 235 ;
236 [label="entropy = 0.0\nsamples = 3\nvalue = [0, 3]"] ;
235 -> 236 ;
237 [label="X[6] <= 2.0\nentropy = 0.971\nsamples = 5\nvalue = [3, 2]"] ;
235 -> 237 ;
238 [label="entropy = 0.0\nsamples = 3\nvalue = [3, 0]"] ;
237 -> 238 ;
239 [label="entropy = 0.0\nsamples = 2\nvalue = [0, 2]"] ;
237 -> 239 ;
240 [label="entropy = 0.0\nsamples = 9\nvalue = [9, 0]"] ;
234 -> 240 ;
241 [label="X[16] <= 2.5\nentropy = 0.414\nsamples = 24\nvalue = [2, 22]"] ;
125 -> 241 ;
242 [label="X[1] <= 24.0\nentropy = 0.684\nsamples = 11\nvalue = [2, 9]"] ;
241 -> 242 ;
243 [label="X[17] <= 1.5\nentropy = 0.469\nsamples = 10\nvalue = [1, 9]"] ;
242 -> 243 ;
244 [label="entropy = 0.0\nsamples = 8\nvalue = [0, 8]"] ;
243 -> 244 ;
245 [label="X[4] <= 3406.5\nentropy = 1.0\nsamples = 2\nvalue = [1, 1]"] ;
243 -> 245 ;
246 [label="entropy = 0.0\nsamples = 1\nvalue = [1, 0]"] ;
245 -> 246 ;
247 [label="entropy = 0.0\nsamples = 1\nvalue = [0, 1]"] ;
245 -> 247 ;
248 [label="entropy = 0.0\nsamples = 1\nvalue = [1, 0]"] ;
242 -> 248 ;
249 [label="entropy = 0.0\nsamples = 13\nvalue = [0, 13]"] ;
241 -> 249 ;
250 [label="X[5] <= 0.5\nentropy = 0.758\nsamples = 32\nvalue = [25, 7]"] ;
72 -> 250 ;
251 [label="entropy = 0.0\nsamples = 3\nvalue = [0, 3]"] ;
250 -> 251 ;
252 [label="X[10] <= 1.5\nentropy = 0.579\nsamples = 29\nvalue = [25, 4]"] ;
250 -> 252 ;
253 [label="X[3] <= 5.5\nentropy = 0.918\nsamples = 3\nvalue = [1, 2]"] ;
252 -> 253 ;
254 [label="entropy = 0.0\nsamples = 2\nvalue = [0, 2]"] ;
253 -> 254 ;
255 [label="entropy = 0.0\nsamples = 1\nvalue = [1, 0]"] ;
253 -> 255 ;
256 [label="X[6] <= 3.5\nentropy = 0.391\nsamples = 26\nvalue = [24, 2]"] ;
252 -> 256 ;
257 [label="X[17] <= 1.5\nentropy = 0.242\nsamples = 25\nvalue = [24, 1]"] ;
256 -> 257 ;
258 [label="entropy = 0.0\nsamples = 22\nvalue = [22, 0]"] ;
257 -> 258 ;
259 [label="X[14] <= 0.5\nentropy = 0.918\nsamples = 3\nvalue = [2, 1]"] ;
257 -> 259 ;
260 [label="entropy = 0.0\nsamples = 2\nvalue = [2, 0]"] ;
259 -> 260 ;
261 [label="entropy = 0.0\nsamples = 1\nvalue = [0, 1]"] ;
259 -> 261 ;
262 [label="entropy = 0.0\nsamples = 1\nvalue = [0, 1]"] ;
256 -> 262 ;
}